#pragma once

static const ap_fixed_c qcsnet2_cblk1_qconv1d_weights[16][1][3] = {
 { {-0.312500, 0.500000, -0.125000 } },
 { {-0.250000, 0.125000, 0.187500 } },
 { {-0.500000, 0.437500, 0.000000 } },
 { {0.437500, 0.000000, -0.062500 } },
 { {0.062500, 0.500000, 0.187500 } },
 { {0.250000, -0.500000, 0.187500 } },
 { {-0.062500, 0.312500, -0.437500 } },
 { {-0.187500, 0.250000, -0.500000 } },
 { {-0.187500, -0.250000, 0.437500 } },
 { {0.375000, 0.250000, 0.062500 } },
 { {0.500000, -0.062500, -0.437500 } },
 { {0.062500, 0.437500, -0.500000 } },
 { {0.250000, 0.000000, -0.125000 } },
 { {-0.250000, -0.125000, -0.187500 } },
 { {0.500000, -0.312500, -0.312500 } },
 { {0.312500, 0.375000, -0.187500 } }
};

static const ap_fixed_c qcsnet2_cblk2_qconv1d_weights[24][16][3] = {
 { {-0.062500, -0.187500, 0.062500 }, {0.125000, 0.187500, 0.250000 }, {0.187500, 0.125000, 0.000000 }, {-0.125000, -0.125000, 0.062500 }, {0.000000, -0.062500, 0.125000 }, {0.062500, 0.000000, 0.000000 }, {-0.062500, -0.125000, 0.062500 }, {0.062500, -0.125000, 0.000000 }, {0.312500, 0.125000, -0.187500 }, {0.062500, 0.000000, 0.000000 }, {0.125000, 0.000000, 0.062500 }, {0.062500, 0.000000, 0.187500 }, {0.000000, 0.000000, -0.062500 }, {0.062500, 0.062500, -0.125000 }, {-0.125000, -0.125000, 0.062500 }, {0.062500, 0.000000, 0.000000 } },
 { {0.062500, 0.187500, -0.125000 }, {-0.187500, 0.000000, 0.187500 }, {-0.250000, 0.062500, 0.000000 }, {-0.062500, 0.187500, 0.062500 }, {-0.062500, -0.062500, 0.187500 }, {0.187500, 0.187500, 0.187500 }, {0.000000, 0.000000, -0.062500 }, {0.000000, 0.000000, -0.062500 }, {-0.125000, 0.000000, -0.062500 }, {-0.062500, 0.000000, 0.000000 }, {0.125000, 0.000000, -0.250000 }, {0.062500, 0.000000, 0.000000 }, {0.187500, 0.062500, 0.062500 }, {0.062500, -0.062500, -0.062500 }, {0.000000, 0.062500, -0.125000 }, {0.062500, -0.062500, 0.000000 } },
 { {0.125000, -0.062500, -0.062500 }, {0.000000, 0.062500, -0.250000 }, {0.000000, 0.125000, 0.062500 }, {-0.250000, 0.125000, -0.125000 }, {-0.062500, 0.062500, 0.125000 }, {0.000000, 0.000000, 0.000000 }, {0.000000, 0.000000, 0.000000 }, {-0.062500, 0.062500, 0.000000 }, {0.000000, 0.000000, 0.000000 }, {0.000000, 0.062500, -0.062500 }, {-0.250000, -0.062500, -0.125000 }, {0.000000, 0.062500, 0.062500 }, {0.062500, 0.000000, 0.062500 }, {0.000000, 0.062500, 0.062500 }, {-0.062500, 0.250000, -0.062500 }, {-0.062500, 0.125000, -0.125000 } },
 { {0.062500, -0.125000, -0.125000 }, {-0.125000, -0.187500, 0.062500 }, {-0.125000, 0.125000, 0.125000 }, {0.125000, -0.062500, -0.062500 }, {-0.062500, 0.000000, -0.062500 }, {0.000000, -0.062500, -0.062500 }, {-0.062500, 0.000000, 0.062500 }, {-0.062500, 0.000000, -0.125000 }, {0.000000, 0.125000, -0.062500 }, {-0.062500, 0.000000, -0.125000 }, {0.062500, 0.000000, -0.062500 }, {-0.062500, -0.125000, -0.062500 }, {0.125000, -0.062500, -0.125000 }, {-0.187500, 0.000000, 0.062500 }, {-0.062500, -0.062500, 0.000000 }, {0.250000, 0.000000, -0.125000 } },
 { {0.312500, 0.062500, 0.125000 }, {-0.062500, -0.062500, 0.000000 }, {0.062500, 0.000000, -0.125000 }, {0.000000, 0.187500, 0.062500 }, {0.000000, 0.125000, 0.187500 }, {0.125000, 0.125000, 0.062500 }, {0.062500, 0.125000, -0.125000 }, {0.062500, 0.062500, -0.062500 }, {0.187500, 0.000000, -0.125000 }, {0.125000, 0.187500, 0.062500 }, {-0.250000, 0.125000, 0.187500 }, {0.000000, 0.000000, 0.125000 }, {0.062500, -0.062500, 0.000000 }, {0.000000, 0.125000, -0.062500 }, {0.000000, 0.062500, 0.000000 }, {0.125000, -0.125000, 0.062500 } },
 { {0.000000, 0.062500, 0.000000 }, {0.062500, 0.062500, -0.062500 }, {-0.125000, -0.125000, 0.000000 }, {0.187500, -0.062500, -0.062500 }, {0.000000, 0.000000, -0.062500 }, {0.062500, -0.125000, 0.000000 }, {0.000000, 0.000000, 0.062500 }, {0.125000, -0.187500, 0.000000 }, {-0.062500, 0.062500, 0.250000 }, {0.000000, -0.062500, 0.000000 }, {0.000000, 0.125000, -0.062500 }, {0.000000, 0.062500, -0.062500 }, {0.312500, -0.062500, -0.125000 }, {0.062500, -0.062500, -0.125000 }, {0.000000, 0.000000, 0.062500 }, {0.062500, -0.250000, 0.000000 } },
 { {0.125000, -0.187500, 0.000000 }, {-0.125000, -0.187500, -0.187500 }, {0.125000, 0.062500, 0.062500 }, {-0.062500, -0.062500, 0.062500 }, {0.062500, 0.000000, -0.062500 }, {-0.125000, -0.062500, -0.125000 }, {-0.125000, -0.062500, 0.000000 }, {0.000000, 0.000000, -0.125000 }, {-0.062500, -0.125000, -0.062500 }, {0.000000, 0.000000, 0.062500 }, {-0.062500, -0.062500, -0.062500 }, {-0.062500, -0.125000, -0.062500 }, {0.000000, -0.187500, -0.062500 }, {0.000000, 0.062500, -0.125000 }, {0.000000, -0.125000, -0.062500 }, {0.187500, 0.062500, -0.125000 } },
 { {0.187500, 0.187500, 0.125000 }, {0.000000, -0.062500, 0.000000 }, {0.125000, 0.062500, 0.000000 }, {0.125000, -0.062500, -0.062500 }, {0.125000, -0.125000, -0.062500 }, {0.062500, -0.062500, -0.187500 }, {0.000000, -0.187500, 0.000000 }, {-0.125000, 0.062500, 0.062500 }, {0.062500, 0.062500, 0.000000 }, {-0.062500, -0.125000, -0.250000 }, {-0.062500, -0.125000, 0.125000 }, {0.125000, -0.062500, 0.062500 }, {0.000000, 0.187500, -0.062500 }, {0.125000, 0.062500, 0.062500 }, {0.062500, 0.000000, -0.125000 }, {0.125000, 0.062500, -0.062500 } },
 { {0.000000, 0.125000, 0.000000 }, {-0.125000, 0.062500, 0.000000 }, {0.062500, 0.000000, 0.125000 }, {0.062500, 0.000000, 0.062500 }, {0.000000, 0.062500, 0.125000 }, {0.062500, 0.000000, 0.062500 }, {-0.125000, 0.000000, 0.000000 }, {0.250000, -0.062500, 0.187500 }, {-0.062500, 0.125000, -0.062500 }, {-0.062500, 0.062500, 0.062500 }, {-0.062500, 0.000000, 0.125000 }, {0.000000, 0.062500, 0.062500 }, {0.000000, -0.187500, 0.062500 }, {0.062500, -0.062500, 0.125000 }, {-0.187500, 0.062500, 0.187500 }, {-0.187500, 0.000000, 0.125000 } },
 { {0.062500, 0.000000, 0.125000 }, {0.125000, -0.125000, -0.187500 }, {0.125000, 0.000000, 0.000000 }, {0.000000, -0.125000, 0.062500 }, {0.125000, -0.125000, -0.187500 }, {0.062500, -0.187500, 0.062500 }, {-0.125000, -0.125000, -0.125000 }, {0.062500, 0.062500, 0.000000 }, {0.125000, 0.000000, 0.187500 }, {-0.062500, -0.062500, -0.062500 }, {0.062500, 0.000000, -0.062500 }, {0.000000, -0.062500, 0.187500 }, {0.062500, 0.125000, -0.125000 }, {0.125000, 0.062500, -0.062500 }, {0.000000, -0.125000, 0.062500 }, {0.250000, 0.062500, 0.125000 } },
 { {0.000000, 0.000000, -0.250000 }, {0.062500, -0.062500, -0.062500 }, {-0.187500, 0.062500, 0.187500 }, {0.062500, 0.187500, 0.062500 }, {0.000000, 0.000000, -0.125000 }, {0.125000, 0.125000, 0.187500 }, {0.125000, 0.125000, 0.125000 }, {0.062500, 0.062500, 0.000000 }, {-0.187500, -0.125000, -0.062500 }, {-0.062500, 0.187500, 0.062500 }, {0.000000, 0.250000, -0.062500 }, {-0.062500, 0.125000, -0.062500 }, {0.187500, 0.062500, 0.062500 }, {0.062500, 0.000000, 0.062500 }, {-0.062500, 0.000000, -0.062500 }, {0.000000, 0.125000, 0.062500 } },
 { {0.125000, 0.062500, 0.250000 }, {-0.187500, -0.062500, -0.250000 }, {0.000000, -0.062500, -0.062500 }, {-0.125000, -0.187500, 0.000000 }, {0.062500, 0.125000, -0.062500 }, {-0.125000, 0.000000, 0.062500 }, {0.000000, 0.000000, 0.062500 }, {-0.062500, 0.000000, 0.000000 }, {0.000000, -0.125000, 0.000000 }, {-0.125000, 0.000000, -0.062500 }, {0.000000, 0.062500, 0.187500 }, {0.000000, 0.062500, 0.125000 }, {-0.062500, -0.062500, 0.125000 }, {-0.125000, 0.125000, 0.000000 }, {0.000000, 0.062500, 0.062500 }, {0.187500, 0.000000, 0.000000 } },
 { {0.000000, 0.062500, 0.000000 }, {0.187500, 0.187500, 0.125000 }, {-0.250000, -0.062500, -0.125000 }, {-0.062500, -0.125000, -0.062500 }, {-0.062500, -0.062500, 0.000000 }, {0.000000, -0.062500, 0.000000 }, {-0.062500, 0.000000, 0.000000 }, {0.000000, 0.187500, 0.000000 }, {-0.312500, -0.125000, -0.250000 }, {0.000000, 0.000000, -0.062500 }, {-0.125000, 0.000000, 0.125000 }, {-0.062500, 0.062500, 0.125000 }, {0.125000, 0.000000, 0.000000 }, {-0.062500, 0.062500, 0.000000 }, {0.000000, 0.000000, 0.187500 }, {0.000000, 0.062500, 0.062500 } },
 { {0.062500, 0.000000, -0.187500 }, {0.125000, 0.000000, -0.187500 }, {0.187500, 0.000000, -0.125000 }, {-0.125000, 0.187500, 0.000000 }, {-0.062500, 0.000000, 0.062500 }, {-0.125000, 0.062500, 0.062500 }, {-0.062500, 0.000000, 0.062500 }, {0.062500, 0.062500, 0.062500 }, {0.062500, -0.062500, -0.125000 }, {-0.062500, 0.062500, 0.062500 }, {-0.250000, -0.062500, 0.187500 }, {0.000000, 0.000000, 0.250000 }, {-0.062500, -0.062500, 0.187500 }, {0.000000, -0.125000, 0.125000 }, {-0.125000, 0.000000, 0.062500 }, {0.000000, 0.062500, 0.125000 } },
 { {0.000000, 0.000000, 0.000000 }, {0.000000, 0.000000, 0.000000 }, {0.250000, 0.125000, 0.000000 }, {0.000000, 0.062500, -0.062500 }, {0.000000, 0.000000, 0.000000 }, {0.187500, 0.125000, 0.062500 }, {0.000000, 0.062500, 0.000000 }, {0.000000, -0.187500, -0.312500 }, {0.125000, -0.125000, -0.187500 }, {0.000000, 0.062500, 0.125000 }, {-0.125000, -0.125000, 0.000000 }, {-0.062500, 0.000000, -0.125000 }, {0.000000, -0.062500, 0.125000 }, {0.062500, -0.062500, 0.000000 }, {-0.125000, -0.187500, -0.062500 }, {-0.062500, -0.062500, -0.125000 } },
 { {0.125000, -0.062500, 0.062500 }, {-0.062500, 0.000000, 0.250000 }, {0.312500, -0.062500, -0.062500 }, {-0.062500, 0.062500, 0.000000 }, {0.000000, -0.062500, -0.187500 }, {0.125000, 0.000000, -0.062500 }, {0.125000, 0.000000, -0.062500 }, {0.000000, 0.062500, 0.000000 }, {0.125000, 0.000000, 0.000000 }, {-0.062500, 0.062500, -0.062500 }, {-0.062500, 0.062500, 0.312500 }, {-0.062500, 0.000000, 0.000000 }, {-0.062500, 0.000000, -0.125000 }, {-0.062500, 0.125000, 0.000000 }, {-0.125000, 0.000000, -0.062500 }, {0.062500, -0.125000, 0.062500 } },
 { {-0.125000, -0.062500, 0.000000 }, {-0.062500, -0.125000, -0.125000 }, {-0.125000, 0.062500, -0.125000 }, {0.125000, 0.000000, -0.062500 }, {0.062500, 0.062500, -0.062500 }, {0.000000, -0.062500, 0.062500 }, {-0.062500, 0.062500, -0.062500 }, {-0.062500, 0.000000, -0.062500 }, {-0.062500, 0.125000, 0.187500 }, {0.125000, -0.062500, 0.000000 }, {0.250000, 0.125000, 0.125000 }, {0.062500, 0.062500, 0.062500 }, {0.250000, 0.000000, -0.062500 }, {-0.062500, 0.000000, -0.062500 }, {0.000000, 0.000000, 0.062500 }, {0.125000, 0.000000, 0.000000 } },
 { {0.125000, 0.000000, 0.000000 }, {-0.062500, 0.187500, 0.125000 }, {0.187500, 0.187500, 0.312500 }, {0.062500, -0.062500, 0.000000 }, {0.062500, 0.062500, 0.125000 }, {0.062500, -0.062500, 0.000000 }, {0.000000, -0.062500, -0.062500 }, {0.125000, 0.062500, 0.062500 }, {0.187500, 0.062500, -0.062500 }, {-0.125000, -0.062500, 0.062500 }, {0.125000, 0.062500, 0.125000 }, {0.062500, -0.062500, -0.062500 }, {-0.125000, 0.062500, 0.000000 }, {0.062500, 0.125000, 0.062500 }, {0.187500, 0.062500, -0.062500 }, {0.000000, -0.062500, 0.062500 } },
 { {-0.062500, 0.125000, 0.000000 }, {0.125000, 0.000000, 0.062500 }, {-0.125000, 0.062500, 0.062500 }, {0.000000, 0.000000, -0.062500 }, {0.062500, 0.000000, 0.000000 }, {0.125000, 0.062500, 0.000000 }, {0.000000, 0.000000, -0.062500 }, {0.000000, -0.125000, -0.062500 }, {-0.125000, -0.062500, 0.000000 }, {-0.125000, 0.062500, -0.125000 }, {0.000000, 0.187500, 0.000000 }, {0.062500, 0.250000, 0.000000 }, {-0.250000, -0.250000, -0.062500 }, {0.062500, 0.000000, 0.000000 }, {0.000000, 0.187500, 0.000000 }, {0.062500, 0.000000, -0.062500 } },
 { {0.062500, -0.125000, -0.312500 }, {0.062500, -0.062500, 0.062500 }, {0.125000, 0.125000, -0.062500 }, {0.062500, -0.062500, -0.062500 }, {0.125000, -0.062500, 0.125000 }, {0.000000, 0.000000, -0.062500 }, {0.000000, 0.000000, 0.062500 }, {0.187500, -0.125000, -0.250000 }, {0.062500, -0.187500, -0.187500 }, {0.125000, 0.062500, 0.000000 }, {0.187500, 0.062500, 0.125000 }, {0.062500, 0.062500, 0.125000 }, {0.125000, 0.125000, 0.000000 }, {0.000000, 0.062500, -0.062500 }, {-0.062500, -0.062500, 0.000000 }, {0.062500, 0.062500, 0.062500 } },
 { {0.187500, 0.125000, 0.250000 }, {-0.062500, 0.062500, 0.000000 }, {-0.312500, -0.062500, 0.125000 }, {-0.062500, 0.125000, 0.125000 }, {0.125000, -0.062500, 0.062500 }, {0.062500, 0.062500, -0.062500 }, {0.000000, -0.062500, -0.062500 }, {0.000000, -0.062500, -0.125000 }, {-0.062500, 0.062500, 0.312500 }, {-0.125000, 0.062500, 0.062500 }, {0.062500, 0.000000, 0.062500 }, {0.187500, 0.000000, -0.125000 }, {-0.125000, 0.062500, 0.062500 }, {0.000000, 0.000000, -0.062500 }, {0.125000, 0.125000, -0.125000 }, {-0.062500, 0.000000, -0.125000 } },
 { {0.125000, -0.125000, -0.187500 }, {0.062500, 0.125000, 0.187500 }, {-0.062500, -0.062500, 0.000000 }, {-0.062500, 0.125000, -0.062500 }, {0.062500, 0.062500, -0.125000 }, {0.062500, -0.125000, 0.000000 }, {0.000000, 0.062500, -0.062500 }, {-0.062500, 0.062500, 0.062500 }, {-0.062500, 0.187500, 0.250000 }, {-0.062500, 0.000000, 0.000000 }, {0.125000, 0.000000, 0.125000 }, {0.062500, 0.000000, 0.062500 }, {-0.125000, 0.000000, -0.125000 }, {0.062500, -0.062500, 0.000000 }, {0.062500, 0.062500, 0.062500 }, {-0.187500, -0.125000, 0.000000 } },
 { {0.250000, 0.125000, 0.125000 }, {0.062500, 0.125000, -0.062500 }, {0.125000, 0.062500, 0.187500 }, {-0.062500, 0.000000, 0.125000 }, {0.062500, -0.062500, 0.125000 }, {0.125000, 0.125000, -0.187500 }, {0.125000, -0.187500, -0.187500 }, {0.125000, 0.062500, 0.000000 }, {0.125000, 0.062500, 0.125000 }, {0.000000, -0.062500, -0.062500 }, {0.062500, 0.125000, 0.250000 }, {0.000000, 0.125000, 0.000000 }, {0.125000, -0.125000, 0.000000 }, {0.062500, 0.000000, 0.000000 }, {0.062500, 0.062500, 0.000000 }, {0.000000, -0.125000, 0.125000 } },
 { {0.125000, 0.187500, 0.062500 }, {0.062500, -0.062500, 0.062500 }, {0.125000, 0.062500, 0.062500 }, {0.125000, 0.062500, 0.125000 }, {0.062500, 0.000000, 0.000000 }, {0.125000, 0.125000, -0.062500 }, {0.062500, 0.062500, -0.312500 }, {0.062500, 0.000000, 0.062500 }, {0.062500, 0.000000, 0.250000 }, {0.000000, -0.062500, 0.062500 }, {-0.187500, -0.062500, 0.000000 }, {-0.062500, 0.062500, -0.187500 }, {-0.125000, -0.062500, 0.062500 }, {0.062500, 0.062500, 0.000000 }, {-0.062500, -0.062500, 0.000000 }, {-0.062500, 0.062500, -0.062500 } }
};

